-0.960000,-0.464000,-0.724000,-0.822000,0.202000,0.028000,0.170000,0.054000,-0.298000,0.926000,0.124000,0.324000,0.232000,0.142000,-0.458000,-0.558000,0.150000,-0.796000,0.542000,-0.798000,-0.550000,-0.970000,0.104000,0.530000,-0.136000,-0.226000,0.540000,-0.372000,-0.038000,0.880000,-0.538000,0.002000,-0.584000,-0.260000,0.180000,0.618000,0.768000,-0.650000,-0.328000,-0.530000,-0.726000,0.796000,0.794000,0.506000,-0.064000,-0.664000,0.950000,-0.914000,-0.458000,0.490000,-0.712000,-0.008000,0.520000,0.394000,-0.478000,-0.616000,-0.834000,-0.940000,0.012000,0.128000,0.942000,0.476000,-0.870000,-0.644000,-0.786000,0.312000,0.974000,0.984000,0.662000,-0.356000,-0.546000,0.936000,-0.560000,-0.754000,0.442000,0.378000,-0.416000,0.390000,0.464000,0.126000,-0.120000,0.754000,-0.882000,-0.600000,0.146000,-0.360000,-0.214000,0.314000,-0.298000,0.800000,-0.558000,-0.358000,0.274000,-0.426000,0.000000,0.490000,0.886000,-0.026000,0.472000,0.548000
0.620000,0.926000,0.482000,-0.942000,-0.828000,-0.076000,0.436000,-0.242000,-0.688000,-0.100000,0.884000,0.194000,-0.346000,-1.000000,0.596000,0.800000,-0.358000,-0.620000,0.114000,0.344000,-0.822000,0.556000,0.988000,0.454000,-0.870000,-0.014000,-0.056000,-0.986000,0.962000,-0.586000,0.564000,0.580000,-0.660000,0.044000,0.640000,-0.486000,0.970000,0.076000,0.272000,-0.718000,0.976000,0.156000,0.476000,-0.372000,0.158000,0.070000,-0.572000,0.800000,0.452000,0.544000,0.144000,0.632000,0.100000,0.130000,0.084000,0.230000,-0.884000,-0.974000,0.244000,-0.922000,-0.558000,-0.194000,0.658000,-0.216000,0.852000,0.298000,0.300000,0.822000,-0.628000,-0.428000,-0.898000,-0.654000,0.728000,0.580000,-0.024000,-0.114000,-0.352000,0.406000,-0.316000,-0.900000,-0.052000,0.828000,0.732000,-0.954000,-0.042000,-0.184000,0.276000,0.076000,-0.156000,-0.480000,0.154000,0.288000,0.328000,-0.188000,-0.930000,0.178000,-0.892000,0.370000,-0.002000,-0.520000
